5 300
跟着 0.100616 -0.155450 -0.010540 0.019455 -0.093754 -0.047239 -0.069079 -0.002386 -0.029492 -0.034463 0.031987 0.094166 -0.075008 -0.025432 0.040515 -0.065071 0.051645 0.017310 0.037448 0.019284 -0.068311 -0.041130 0.019731 -0.033878 0.012398 -0.043706 -0.001995 0.056887 -0.028751 -0.044130 -0.004847 -0.020401 0.006172 0.027687 0.018755 -0.007098 -0.075291 -0.019485 0.001409 0.022670 -0.000944 0.004051 -0.054170 -0.025181 -0.034131 0.024377 -0.032155 -0.025225 0.004921 -0.011060 0.074084 -0.033709 0.011941 -0.002747 0.065937 0.039604 -0.054969 0.084188 -0.011965 -0.027292 0.013599 0.008947 0.013956 -0.013168 -0.024055 0.067560 -0.030109 0.016005 -0.053201 0.042672 0.005091 -0.007911 -0.008464 -0.001036 -0.038429 -0.027383 -0.027955 0.078726 0.016117 0.064734 0.017835 0.061717 0.015790 0.024895 0.035039 0.008214 0.021197 0.005378 0.025532 -0.035661 0.001439 0.015821 0.037991 0.016645 0.030312 0.040881 0.038342 -0.050712 0.043208 0.000196 -0.025180 0.026092 0.010027 0.036506 0.028393 0.017294 -0.052856 -0.032397 -0.001415 0.037878 -0.023069 0.042009 -0.031123 -0.017314 0.009794 0.051597 -0.008030 -0.033074 0.036514 0.017682 -0.015282 -0.037805 -0.056531 -0.042437 0.015259 -0.058259 -0.030325 -0.024636 0.064924 0.028196 -0.053473 0.012883 -0.063692 0.037104 -0.030835 0.026144 -0.058914 0.031297 0.003806 0.022353 -0.011188 0.120570 0.039016 -0.067692 -0.027404 0.043894 0.007625 0.024519 -0.102470 -0.066975 -0.007463 0.024371 -0.002176 -0.009230 0.006291 -0.077486 -0.013789 -0.014935 -0.016312 -0.016352 0.000659 -0.015427 0.025168 -0.010757 -0.019167 -0.027023 0.020746 -0.004934 0.008424 -0.046084 0.027860 0.013858 0.036967 -0.051345 -0.025824 0.058204 -0.014649 0.016378 0.040891 0.006058 0.002357 0.016235 0.034207 -0.034724 -0.065353 0.023345 -0.013544 0.055583 0.024255 -0.008528 0.035864 -0.017002 0.062405 0.009847 -0.007848 0.000786 0.003111 -0.047464 -0.015034 -0.010224 -0.029508 0.016137 0.054744 -0.095470 0.062005 -0.025038 -0.004673 -0.015795 -0.071193 0.013580 -0.003088 -0.005839 -0.035054 0.043201 0.005124 0.032037 0.032511 0.031417 0.039562 -0.004572 -0.027321 0.006696 0.040463 0.053877 -0.085598 0.046985 -0.051454 -0.029791 0.020246 -0.011915 -0.014394 -0.035614 -0.011568 0.011220 0.025009 -0.005776 0.023466 -0.020520 -0.042867 0.014753 0.053254 0.061382 -0.008363 0.058699 -0.008613 0.049107 0.011288 -0.013065 0.005285 -0.036331 -0.072591 -0.043653 0.048975 0.012152 -0.050185 0.018047 0.034642 -0.001764 -0.020295 -0.002845 0.069798 0.032003 -0.003769 -0.027786 -0.028094 0.036900 0.009275 0.008703 0.069343 0.043073 -0.018169 0.015255 -0.016331 0.005698 0.040829 -0.003543 -0.020660 0.060244 -0.029110 -0.013947 0.014954 -0.051631 0.023648 -0.039238 -0.002050 0.016963 -0.003194 0.002447 0.059388 0.008778 0.014444 -0.003803 0.055159 -0.015073 0.062828 0.008298 -0.029442 0.051682 0.018957 -0.005335
好难 -0.045074 -0.024635 -0.030057 -0.046607 -0.014000 -0.011127 0.039896 -0.003016 0.014085 0.005225 -0.036196 0.005282 0.014558 -0.054220 -0.052377 0.057791 -0.006097 0.009972 0.021179 -0.109953 -0.004453 0.056331 -0.028991 0.021155 0.009159 -0.054981 -0.002087 -0.004142 -0.003505 -0.040145 0.034964 0.019360 0.056493 0.026756 0.000010 0.013812 -0.022032 0.005955 0.025876 -0.005452 0.005282 -0.017205 -0.068599 0.007961 -0.020916 0.029017 -0.018087 0.049652 0.000359 -0.082028 -0.013204 -0.008666 -0.056135 -0.064836 0.013590 -0.041967 -0.056649 0.087780 -0.047181 -0.023768 -0.019514 0.015631 -0.010915 -0.012335 0.014053 -0.005077 -0.023954 0.043172 -0.012104 0.029676 0.019943 0.024124 0.030242 0.037425 -0.036573 0.016928 0.055999 0.011160 0.043080 -0.045600 -0.004849 0.080540 0.002136 0.000372 -0.017643 -0.037930 -0.031578 -0.023090 0.002359 -0.022381 -0.019290 -0.000420 -0.036895 0.015111 0.046121 0.024144 -0.041304 -0.020106 -0.085862 -0.021224 -0.032968 -0.018349 -0.014559 -0.042913 0.085051 0.025601 0.040617 -0.022976 0.087180 0.012364 -0.014797 0.024248 0.007768 -0.014767 -0.037409 0.040845 -0.011133 0.034837 0.011446 0.001573 -0.049685 -0.026589 -0.015413 0.020094 0.005720 0.024874 0.003447 -0.004418 0.047263 0.029603 -0.033712 0.018105 0.056038 -0.005409 -0.001428 0.013775 -0.010367 -0.015130 -0.003923 0.016121 -0.011036 0.017608 0.006105 -0.101802 -0.016313 0.068833 -0.093935 -0.036623 0.052927 0.036521 0.037817 0.036603 0.029096 0.055494 -0.069115 -0.045751 -0.012642 -0.029480 0.008809 -0.045030 0.029221 0.025110 -0.026032 -0.005501 0.023480 0.021615 0.028455 0.067426 0.041586 0.091572 -0.041410 -0.018795 -0.020596 0.017826 -0.023839 0.042753 -0.011257 -0.027734 0.017745 -0.031495 -0.019753 -0.013426 0.008947 0.016467 -0.045825 0.014340 -0.066175 0.035926 0.009316 -0.015153 -0.030995 -0.035276 -0.033522 -0.014342 -0.027644 -0.031229 -0.051353 -0.016752 0.009066 -0.064709 -0.008968 -0.038350 0.044398 0.082931 -0.033126 0.044975 0.063745 0.000351 -0.014579 0.007251 0.015262 -0.017733 -0.038300 -0.019062 0.069189 0.050462 -0.062740 0.066246 -0.042664 0.022081 0.049958 0.045471 -0.011547 -0.013153 0.029837 0.036390 -0.026621 -0.016813 -0.006045 -0.014261 0.001489 -0.020014 0.001550 -0.016194 -0.009971 0.030385 0.023512 -0.042527 0.048897 -0.069931 0.019276 -0.005109 0.048143 -0.000269 -0.013742 0.067265 0.023731 -0.031766 -0.003734 0.054922 -0.005364 -0.012299 0.045162 -0.027840 -0.023719 -0.039378 -0.007152 -0.061199 -0.043624 0.014581 -0.031165 0.003467 -0.057440 0.003136 0.005224 -0.015155 -0.007280 0.024819 0.008884 0.006756 -0.034710 -0.003108 -0.001243 0.010407 -0.026912 -0.004343 0.001633 -0.021358 -0.014454 -0.019772 -0.018523 0.054688 0.008236 -0.002068 -0.018370 0.004725 0.047816 -0.015423 0.045986 0.028993 0.002656 0.020114 0.000426 -0.065218 0.006574 0.031609 -0.038755 0.047625 0.005414 0.014910
多天 -0.026314 -0.055533 0.016351 -0.027239 -0.040512 0.030523 0.023448 0.015319 0.008789 0.017847 -0.001957 0.025790 -0.031884 -0.070588 0.028759 -0.037974 -0.050480 -0.054628 0.085714 -0.107439 -0.000934 0.013280 0.018265 -0.044082 -0.035702 -0.074244 0.023126 0.029949 0.062709 -0.073711 0.026931 -0.064278 0.049569 -0.003949 0.031276 -0.038232 0.042071 0.021054 0.058315 -0.057775 0.051698 -0.031694 -0.045181 0.043622 -0.025854 0.123112 -0.009211 -0.019561 0.000581 0.014636 0.030381 0.017978 -0.055972 -0.076120 0.012278 0.044571 -0.113295 0.166774 0.004229 0.002264 -0.013010 0.004887 0.028153 -0.066636 -0.022898 0.106710 -0.130532 0.055134 -0.063565 0.035309 0.002780 -0.069588 -0.001517 -0.048202 -0.119666 -0.089472 0.060574 -0.016281 0.021812 -0.063165 0.037042 0.118044 0.065596 0.015163 0.040076 -0.009504 -0.020208 -0.024544 0.024235 -0.051822 -0.106711 0.062655 0.003082 0.048558 0.090082 0.003572 -0.023793 0.026335 -0.001970 -0.046371 -0.040570 0.057483 0.025405 -0.032963 0.041569 0.013024 0.050789 0.003949 0.097007 0.059552 -0.006021 0.028329 -0.006735 -0.014930 0.027144 0.089257 -0.016201 0.046432 -0.003582 0.076105 -0.029214 0.013535 -0.075297 -0.001764 -0.019026 -0.053908 -0.082935 -0.008772 0.091843 0.052397 -0.042803 -0.026312 -0.042790 0.012311 -0.080741 0.027606 -0.044935 -0.035235 0.023050 0.040441 -0.134205 0.113609 0.022286 -0.059209 -0.002136 0.035438 -0.011666 0.020967 0.026602 -0.048281 0.021769 -0.013460 0.036307 -0.013819 -0.026363 -0.092328 -0.035939 -0.077133 -0.032437 -0.036831 0.021498 -0.033387 0.013352 0.030081 0.014421 0.003006 0.057768 0.043254 -0.014075 0.093971 0.045843 -0.027486 -0.007467 -0.026922 -0.085797 -0.015001 -0.026239 -0.038400 0.094037 -0.045408 -0.010136 -0.093594 0.001681 0.037097 -0.008346 0.024343 -0.054622 0.026333 0.005212 -0.049480 -0.017329 0.038969 -0.072827 -0.048124 -0.038757 0.004409 -0.069212 -0.011885 -0.039529 -0.004429 -0.034920 -0.003040 0.050350 -0.013389 -0.037674 -0.014638 0.135891 -0.055235 0.008876 0.041381 0.034990 -0.025342 -0.086518 0.020462 0.037052 0.088667 0.007426 0.009738 0.024599 0.100834 0.067363 0.109133 0.071747 0.030962 -0.023192 -0.018249 -0.026141 -0.002190 -0.023014 0.068863 -0.034230 0.013945 -0.015669 0.048638 0.043893 0.002888 0.031228 -0.050989 -0.016939 -0.082827 0.090086 0.009030 0.067455 0.038039 -0.043787 0.067438 0.035180 0.026933 -0.000889 0.008187 -0.112540 0.020547 0.014492 0.002833 -0.054819 -0.024314 -0.003096 -0.044316 -0.010693 -0.049245 0.010036 -0.042441 -0.009563 -0.118382 -0.029311 0.022589 -0.011087 0.001924 0.032565 0.005594 -0.055725 0.003304 -0.034634 0.003702 0.003804 -0.028158 -0.025772 -0.005108 -0.087079 0.014549 -0.076996 0.024740 0.057961 0.006234 0.015485 0.115610 -0.015755 -0.020166 0.022605 -0.004045 -0.012875 -0.021205 0.042965 -0.010714 0.005628 0.043665 -0.059320 0.135904 0.033874 0.010279
三罐 -0.046641 0.003075 -0.026480 -0.008125 -0.045370 0.019018 0.019786 -0.067727 0.033934 0.023749 -0.058559 -0.016572 0.021821 -0.001935 0.000514 -0.009824 -0.014102 -0.071651 0.023724 -0.003213 -0.031582 0.013394 -0.017336 -0.033548 -0.029453 -0.026110 0.032294 0.060818 -0.004030 -0.021427 -0.016021 -0.000642 0.046265 -0.027720 -0.035453 0.013771 -0.020422 -0.051111 0.034447 0.023944 0.024722 -0.039850 -0.028541 -0.000706 0.037115 0.064076 0.060121 0.057630 0.002975 -0.036024 0.042498 0.034891 -0.013771 0.001835 0.008807 -0.055592 0.022716 -0.010918 -0.012643 0.004328 0.055436 -0.027020 0.019661 -0.009892 0.068677 -0.018609 -0.007752 0.036554 -0.008743 -0.019219 -0.017956 0.051130 -0.038472 0.003309 -0.014401 -0.028357 0.002010 -0.041237 0.047678 0.040959 -0.019353 0.056377 0.017932 -0.038161 0.001657 0.000713 -0.016882 0.010919 -0.021501 0.005269 -0.012542 0.003622 -0.049151 0.029849 0.030975 0.031919 -0.053845 -0.104866 -0.036625 -0.014080 -0.064914 -0.028072 -0.064799 0.021984 -0.020418 -0.011702 -0.006824 -0.054299 0.049284 0.019085 0.016847 -0.009459 -0.006774 -0.041323 -0.076448 -0.011556 0.041695 0.003966 -0.014882 0.035763 -0.057206 -0.019633 -0.019948 -0.019672 0.023239 -0.008198 -0.021041 0.010861 0.039382 0.001338 0.030969 -0.006728 0.047539 0.013640 0.028791 -0.018801 -0.011258 0.033302 0.009375 0.030241 0.064075 -0.054636 0.052600 -0.007852 0.000608 0.054993 -0.047534 -0.001473 0.009055 0.061957 -0.020698 0.063030 0.030654 0.033923 -0.047452 -0.010163 -0.024073 -0.011061 -0.000043 -0.018217 0.008052 -0.033696 0.000896 -0.008116 0.002332 -0.040646 0.028653 0.004914 -0.011788 0.021932 -0.033013 -0.009142 0.024832 0.034126 0.014018 0.028576 0.009921 0.025227 -0.013764 -0.029908 -0.007546 0.006994 0.003315 -0.008149 0.041273 0.002008 0.009430 0.004554 -0.021789 -0.006024 -0.036948 -0.005287 0.037192 0.006412 0.021103 -0.001920 -0.001401 0.002208 0.047730 -0.043288 -0.000607 -0.025183 -0.004310 -0.012334 0.039370 -0.010591 0.005895 -0.004446 -0.044346 -0.058251 0.010575 -0.015408 0.041241 -0.004249 0.017041 0.013039 0.004895 -0.001620 -0.014610 -0.005507 0.060545 0.017050 0.017471 -0.045519 0.018161 0.022975 -0.030395 0.012415 -0.009555 0.007543 0.058714 0.033337 -0.005948 0.016666 -0.016328 0.000152 0.014872 -0.020873 -0.009628 -0.032630 -0.005994 -0.009459 -0.019237 0.056369 0.015803 0.017669 -0.041320 -0.022903 -0.032023 -0.011903 0.029064 0.004229 -0.021326 0.005271 -0.022604 0.033054 -0.006308 0.012568 -0.002537 -0.017772 -0.005183 0.008502 0.028233 -0.015511 0.024225 -0.037091 -0.017331 0.002245 -0.025263 0.015496 -0.015165 -0.006785 -0.021536 0.024826 0.013583 -0.017974 0.031302 -0.017533 0.062229 -0.052143 -0.019396 -0.002101 0.001121 -0.011925 0.005784 0.036261 0.031638 -0.034905 -0.022113 -0.000599 0.029930 0.005639 -0.015954 -0.035883 -0.008903 0.016236 0.007922 -0.018403 0.029513 -0.002317
强劲 0.037886 -0.083463 -0.006194 -0.032201 -0.036188 -0.031838 0.018844 0.023200 -0.007353 -0.021430 0.035439 0.051898 -0.001976 -0.002855 0.047118 -0.012240 -0.006562 0.017544 -0.027701 -0.023658 -0.117830 -0.006271 0.055027 -0.000798 0.028588 -0.023580 -0.007071 0.008619 0.006077 -0.064671 0.068431 -0.014048 -0.060826 0.044731 0.018694 -0.006873 -0.043790 -0.044626 -0.022202 0.095549 -0.026287 -0.024902 -0.045561 -0.063338 -0.002975 -0.028077 -0.067136 0.021052 0.005429 -0.046737 -0.002195 -0.050042 -0.019198 0.010786 -0.012111 0.046791 -0.067332 0.037569 -0.003408 0.000044 -0.081122 0.073560 0.001073 0.004417 -0.003679 -0.010546 -0.001979 -0.013744 -0.031579 0.090092 0.015240 -0.004188 0.056179 -0.035094 0.007514 0.075694 0.019211 0.044754 -0.062429 -0.021888 0.029424 -0.009297 -0.039688 0.033292 -0.022409 -0.031946 -0.011512 -0.029109 -0.002621 -0.008997 0.019214 0.031186 0.060261 0.001846 -0.025608 0.011392 0.013216 0.033052 -0.006593 0.000930 0.028003 0.016708 0.005223 -0.079339 0.082222 0.020386 -0.020474 0.022641 -0.000148 -0.001571 -0.005549 0.027141 -0.014973 0.035364 0.016290 0.013945 -0.024241 -0.000352 0.057793 -0.003601 -0.023763 -0.017894 0.052252 -0.048064 0.001482 0.029188 -0.021693 0.032948 0.004193 -0.018601 -0.020683 0.008824 -0.110258 -0.001442 -0.000515 0.074664 -0.015334 0.024063 -0.024647 -0.032793 -0.025266 0.057996 -0.026958 -0.039604 -0.015746 0.039088 -0.016206 -0.005914 -0.032408 -0.074536 0.057999 -0.048878 0.026448 -0.000330 0.018768 -0.015616 0.029145 -0.060113 -0.005395 -0.037345 0.015296 -0.012276 -0.009259 0.032279 0.013276 0.048679 -0.041898 -0.023226 0.024544 -0.037518 0.014889 0.067646 -0.036256 0.001695 -0.035925 0.012433 -0.036819 -0.009978 -0.030245 0.042381 -0.038854 -0.019555 0.065966 -0.030643 -0.066497 0.017126 -0.044561 0.008312 0.021508 -0.002290 0.016675 -0.019516 0.035436 0.042509 0.010734 -0.009901 0.040140 0.027102 -0.028102 0.055894 -0.030391 0.028253 0.105230 -0.007668 0.057569 -0.060632 0.043957 0.065594 -0.004640 0.040583 -0.031005 -0.019842 -0.111109 0.014612 -0.028168 -0.021515 0.042563 0.019902 0.100649 -0.006086 -0.033010 -0.041786 0.029679 -0.000001 -0.069058 0.004834 0.012905 -0.079877 0.034065 0.010761 -0.068588 -0.036239 -0.025801 0.030293 0.082884 0.047975 0.044324 -0.100672 -0.043560 0.029689 0.018648 0.027648 -0.053293 -0.089817 0.011866 0.014300 0.024513 -0.001099 0.068089 0.033185 -0.118536 -0.022226 0.042375 -0.027276 -0.042773 -0.009103 -0.015476 0.026430 -0.007981 0.016408 -0.007076 -0.020914 -0.017077 -0.036356 -0.027213 0.050806 0.032424 -0.017347 0.067446 0.017482 -0.048106 -0.004593 0.036493 0.042239 -0.056017 0.015085 -0.040314 0.002707 -0.052671 0.076384 0.049434 -0.036221 -0.020504 0.006209 -0.027265 0.044234 0.015739 0.018320 0.038517 0.020135 0.001405 -0.050761 -0.011042 0.065019 0.103414 -0.011935 -0.070070 0.114769 0.024491 0.063670
